0.0354678492381  -0.200596676441  -0.101393473377  -0.0446813551621  0.221697812297  0.0325664896615  -0.180974272559  0.0372399933434  -0.0786137017103  0.196479917773  -0.287044998143  -0.106129353244  0.0474717513538  -0.128656789604  -0.137457577708  -0.0358142994698  0.0576218864615  0.191853372877  -0.0910456923145  0.0730896855357  -0.0793261711832  0.0838694281408  -0.129370491406  -0.19758678198  -0.16891304613  0.00749286262096  -0.0680396980607  0.162572682378  -0.0458081110449  0.0310993728302  0.137384499626  -0.135359375921  0.0329115158091  -0.0126551606903  0.1992531602  0.15742801828  -0.0160488852423  -0.0115192936161  -0.00987789856041  -0.0682414253576  -0.0351446962396  -0.905727614982  -0.035324800916  -0.163222107677  0.113661776625  0.100806504803  -0.194548795262  -0.0330985454938  0.0324079475287  0.00800716850876  0.00438025269049  -0.0567748184731  -0.171568500268  0.0608629937563  0.200484321061  -0.144022797827  -0.0239571986026  -0.0918626452649  0.0786861895412  -0.0690289968788  0.0469951957404  -0.602405372024  -0.0864061816311  0.0453868466766  0.160008275975  -0.0147789422181  -0.0271791243157  -0.0161204529691  0.0083207664659  -0.0473748016047  0.193083041098  0.181771812915  -0.0705095743765  -0.0712615269173  -0.0213819212643  0.015850502489  -0.108258061928  -0.0858696322573  -0.154845215248  0.116144076143  -0.0614037213473  -0.125533678507  -0.103033243743  -0.0322273630214  0.00721499406431  0.0299809873955  -0.107213908036  -0.00606071818737  -0.0867782321072  -0.0084246895047  -0.0292093581361  0.00471411918242  0.0837683461013  0.050843140452  -0.0117630015144  0.0817586929985  -0.0198640475497  0.00294283185305  -0.0678285356373  0.0320355059613  0.0791890063813  0.00891485414679  0.151104115643  0.139096672664  0.0511905205917  0.0134744926678  -0.0238869337069  0.0238006155035  0.247168273447  -0.109811178889  -0.0128784906213  -0.0340202137182  0.0466825565409  0.0279178420618  -0.108624745213  -0.0516677794905  -0.0638225944125  -0.018070258431  0.226058167091  0.0399608459651  -0.0558782215848  -0.0882008758427  -0.12894959614  0.0542157023543  0.044619260483  0.00349165912196  -0.0285752608046  0.0616928423899  -0.0370883822007  -0.0460782709605  0.208076718232  0.0867951965424  0.0817472091948  0.0314856828493  0.0344251235827  -0.0590568224014  -0.0606287736361  0.000254413959103  0.0650491002743  0.0423590103989  0.0564976586457  0.0956970326632  -0.0369559885064  0.0569869143302  -0.144211818932  0.06962480379  -0.0687382767112  -0.0985276018658  -0.00977140706763  -0.0879670493057  0.11463464506  0.187113101517  -0.0174487315708  -0.0109000625586  0.00707265003515  0.0450845417216  -0.125037156157  -0.0543044153418  0.14195763986  0.113506748063  0.248867835694  -0.0472595587254  -0.0932913417163  -0.0225582662346  -0.111320946179  -0.0390950964011  -0.0198173165969  -0.0121034951867  0.0236642476597  0.00934802986171  -0.295095142328  0.0365564972396  -0.051109747518  0.0181009693864  0.194467136999  -0.0407111713922  -0.0576574846716  -0.0218339630167  0.151256002507  -0.0293069902471  -0.085626585084  0.082843861609  -0.073980271878  -0.095854447038  -0.0306652699872  -0.091791251122  0.0830341948054  0.0497122891347  0.00158777414081  0.121061589104  -0.256728354671  -0.0364099453253  0.100726512115  -0.000205157068209  0.0270904905133  0.0469555165001  0.0893659374145  0.0606925032489  0.293442102469  0.00111529768864  -0.0808110122172  -0.0027119344148  0.000802691828041  -0.00735979417871  -0.0290208049126  0.214073299157  -0.0153583557937  0.145521130154  -0.0390159640639  0.234784040511  0.0340380467718  -0.0331088941378  -0.0380887669246  -0.153081827218  -0.00624147501729  -0.102423282867  0.0801891152338  0.0049233314486  0.0517738272976  -0.0944642308275  0.0228964018973  0.0353806037652  -0.0893517309317  -0.00865009898172  -0.0465825898846  -0.0107871132902  -0.0578534937219  -0.0419483577381  0.0384455236173  -0.0206248134389  0.06113813424  -0.213082772717  -0.0338545362789  0.307440209854  0.0671416854756  0.01883896703  -0.000970695454084  -0.0390857810537  -0.035235041757  0.0901423598267  0.0314824761793  0.180128513725  -0.000816064136445  -0.0726923399522  -0.00456931255971  0.0146607410066  -0.121679493363  -0.0520126004531  -0.00502914265101  0.179084707261  0.003741106553  0.0701673495999  -0.218955464216  0.0124862781032  -0.010781274586  0.0391198487536  -0.0646377617294  0.0295093174905  -0.00275740938178  0.0524557764335  0.0777501684758  -0.0326468142679  0.189459163935  -0.0642653088338  -0.120075043021  0.0296213091427  0.0361568599063  0.0831332757693  0.126242159426  -0.143480311751  0.232117840157  -0.0816496487707  0.0091403666176  0.127112608059  -0.0405331923502  -0.0380009425101  0.034121613004  0.233322061217  0.0547124666156  0.182873339261  0.00399459734127  0.0438898313828  -0.0503503500467  -0.214092569315  -0.0213391024557  -0.0491583067908  -0.0547770221584  0.013314047087  0.13230442618  0.0452089755259  0.208593899454  -0.145548312673  -0.0653720387338  -0.0328506440677  -0.0391850731962  0.00365607578073  0.0302689719587  0.00881577646126  -0.046392018327  0.0666709369279  -0.0131160599196  0.0869497767891  0.00114936871971  0.278779065366  -0.324515041258  -0.158063646537  -0.0484059538966  -0.159079442958  -0.0124613159688  0.0613190174012  -0.0200754748982  0.045875090337  -0.0662450994303  -0.0145987671003  0.0575202390201  -0.0887304178063  0.000240214725667  0.121787192519  0.0308306605521  -0.0464473023387  0.0734274148449  -0.0452820104784  0.0839922835107  -0.0695927524219  0.06951011297  0.000807998746424  -0.00522934588832  0.135476566916  -0.088471702491  -0.0966200401233  -0.00724650675363  -0.0406416638311  -0.0390874383011  0.0218081288364  0.0311445970272  0.0535191242161  -0.0497214759413  0.00279909258258  -0.0114709446601  0.0273974473026  0.0673766510083  0.186467207161  0.0841568822047  -0.0405292830214  -0.084610120882  -0.0693691883021  0.0665403866207  0.409714995949  0.0310351527733  -0.0521430008251  0.168140816722  -0.0415961529302  -0.0455569837288  0.0121116111598  -0.051871311446  -0.000530223685219  -0.0013826881197  -0.100819284817  0.056832738878  -0.126628068002  0.00772827088789  0.269714498448  -0.145958312106  -0.132868853922  0.0630425495188  -0.0638945739654  -0.040044911319  0.0242957398865  0.146043179257  0.139652359033  -0.112257508268  0.138430888262  0.00458404203961  -0.221056212951  -0.122778973301  -0.018146682165  -0.0338995242426  0.0734748156458  0.0908906288433  -0.0268588817596  0.000913272741382  0.060637760201  -0.0101599037204  0.0795459151116  -0.0767724523626  0.0160786755915  -0.00367450373085  0.01420672214  -0.0850253284798  -0.0705326909596  -0.00919367901148  0.11068517388  0.234888001271  -0.052787603065  0.0300065275153  0.0129678203467  0.108170181853  -0.0213919934724  -0.0784229485502  -0.00127465540997 
