0.293043443255  -0.799491587411  0.726940611458  -0.479094837638  -0.153572222102  -0.161967373084  -0.238228908771  -0.856269502532  0.383999718017  -0.838636884153  -0.458600572054  1.22854688244  0.539711075554  0.769857369422  1.80834311658  -0.11049494022  0.142798287719  0.483181916128  -0.130475982668  -0.163499336667  0.488523274318  0.601391586182  0.509442109877  0.972233500636  0.837602032597  -0.686242281453  0.180766596524  -0.663754506575  -0.315585733496  -0.0151096192915  -0.182051611744  0.0157655201068  -0.167928966266  -0.484598983889  -0.307462647447  0.424265250032  0.513008228568  0.255691830186  -0.597607958972  -0.76993955676  -0.909067905068  -0.139652915927  0.30842266436  0.688706548821  -0.626225937758  -0.0687248518798  0.133113665521  0.305273967098  0.228783565803  0.0421425090105  0.199072756534  -0.255164221576  0.401700768337  -0.901076612749  0.277637999361  0.276157269514  -0.276852294868  -0.649606261708  0.371065649038  -0.182592829973  -0.955294361885  -1.20666829067  0.684780618365  0.201876900263  0.52573610776  -1.00492434745  -0.932322767559  0.15761266571  -0.426957340777  0.0800285365433  -0.367177223285  0.299725597246  0.172457840786  0.0358175583157  -0.172851186013  1.20076564615  0.205249488025  0.61205056577  0.0536978410126  0.47219880524  0.507671716749  0.376522784228  1.38693228236  0.190573263085  -0.164907572127  -0.056785329828  -0.367218124639  0.165703719738  0.638535637184  0.636356121775  -0.0658756614328  -0.847228076444  0.151444493405  -0.175025467448  0.622879107982  -0.340738193568  0.868706112065  0.0873898879075  -0.238596415755  -0.416538693243  0.0169154690245  -0.499069077437  -0.380464590491  -1.33703539291  0.113445405792  -0.0540212563991  -0.207467024743  1.01141919669  0.207554555874  0.449811063145  0.540116711508  -0.643533996055  0.105712976167  0.015598587198  0.205905350253  0.282255698851  -0.235615827789  0.0141317199745  0.0509353721895  -0.617841162553  -0.411484766443  0.480677131163  -0.321397509648  -0.151994222448  -0.262588874095  0.0302506128743  0.218444508895  0.56530359527  0.561115825322  -0.518705681713  -0.10391596899  0.243573787787  1.16476991443  -0.927514963236  1.32809630692  0.639051892469  -0.495959861262  -0.121103388754  -0.792170381703  -0.145746363763  0.0512747955963  -0.173891568951  0.225934164646  0.726898447673  0.391276833555  -0.205138933613  0.0605937064195  -0.201719078577  -0.22137181362  0.0144104123254  -0.176415764886  0.334409740968  0.602551295438  0.167250549236  0.767334202363  0.713756830835  1.44213226715  0.0713450218699  -0.118085211673  -0.136421166228  -0.882330021683  0.382603051367  -0.619308236934  0.00725741434223  0.222237537353  -0.0374826482581  -0.0569726787237  -1.67407277119  -0.549161765715  -0.423177137949  -0.283361808897  0.666136929967  0.15736853374  0.309069121562  0.878894184904  -0.223868136969  0.358276395587  0.247460718093  -0.577033768046  0.323736202143  0.605036818995  0.474472371132  0.194823948278  -0.411790620976  -0.271735601233  0.405680563593  0.900117396193  -0.155434100598  0.135580925473  0.392782015845  0.0114892658677  0.533650861724  0.0240561026943  0.118756228789  -0.301423130884  0.365298214278  0.554142052784  -0.181610548937  0.123556711737  -1.60762190189  0.0051346642088  -0.722739937736  -0.659343323747  0.137745136787  0.22883287063  -1.24687716635  0.295213544397  0.370322862088  0.400675134011  0.03105785654  -0.485270601335  0.830480792844  -0.0317056350447  -0.39453001267  0.456185949702  -0.387129932031  0.127481517921  0.0653526023143  -0.553103336775  0.115787226239  0.219431036758  -0.0267087042369  0.0921631156968  0.663048624978  -0.505249332705  0.395681101047  0.187831277573  -0.514971892583  0.131875717571  0.315229455329  0.602457557438  -0.646196189483  -0.683443480604  -0.373819000961  -1.60987953235  0.161411199456  0.386547528952  -0.160945197354  -0.493328740581  -0.0267269398863  0.0840477301475  0.0219692610609  -0.347002412219  0.0620833380264  -0.110956806444  0.169933540452  0.724903235582  -0.465852763216  0.128575600242  -0.196235691756  0.69600144949  -0.614550589868  -0.0444977357361  -0.305650452078  0.0613886725172  0.0242811338165  -0.0331125445711  0.352081693082  -1.07218042794  -1.30662597031  0.618085907132  -0.201574347923  -0.321393528634  -0.181985821612  0.433229436975  0.929814237527  -0.600620304376  0.159403906039  0.0383688637775  -0.240028060869  0.363240465826  -0.517754041862  -0.620980944366  0.102393669272  -0.0194502854155  0.552953671526  -0.515766355805  -0.394119642373  0.509874899869  -0.652168031578  -0.00950793079531  0.00435411961333  0.132896851492  0.407364307602  1.24743880759  0.682163500968  0.605511279604  -0.539121570418  0.333029622718  -0.169200822226  0.0561623457483  0.100177712816  -0.0214930524272  -0.884203841741  -0.308658373318  0.285801549048  -0.642340279344  -0.0827591243084  -0.250048008869  0.629887598745  -0.0748670832934  -0.955325766342  0.506180800227  -0.0790681847212  -0.0922401667036  0.263984386197  -0.846847878944  0.5033859859  0.210810322124  -0.195151399977  0.590690564134  0.110821408279  -0.368820927054  -0.570016413825  -0.44563663387  0.0687108547334  -0.17219898313  0.342557570347  -0.103488812258  -0.270134390527  0.574000639086  0.0157392936991  -0.301113622323  0.304178113792  0.513856179978  -0.87830239174  0.428449425956  -0.499326700382  -0.54300120605  -0.0800905828751  -0.463466246087  -0.520619122171  -0.956606752206  -0.182802485971  0.522237180335  -1.06403700554  -0.0487621769646  0.524895967526  0.601260897568  -0.568890764558  -0.898074794612  -0.0131558011703  0.374739969075  -0.546477740125  0.243197035647  -0.298933474688  -0.627660650165  0.287427331208  0.759280236744  0.816459610972  0.160864275979  0.1308942851  1.34108408636  1.1561892885  0.168815597103  0.511375157711  0.572567235345  1.05676018847  -0.664061975314  0.114912902873  0.446695124654  -0.471618740478  -0.146494438644  -0.529875942039  -0.0803028874013  -0.344023108371  0.758091632605  0.167877491552  -1.20914497672  0.158879039808  0.757794803115  -0.305927102029  -0.41332209358  -0.055812630815  -0.260596396745  1.01090838335  0.751653635003  0.119738654643  -0.300133624358  -0.746082425557  0.712423100782  -0.115652650784  -0.0908278218309  0.359899990683  0.187388925638  -0.365010403638  1.21007182168  -0.993309179156  0.365653903017  -0.770551587858  -0.0184007649163  -0.521959333669  -0.534286102163  -0.482165358796  -0.389784451049  -0.718828070619  0.100883478227  0.0127186551049  0.351514865614  -0.244654776135 
