1.25428239606  -0.0263957412303  -0.210579475967  -0.960344301195  0.227629860903  -0.379880819795  0.131732595013  0.264140581179  0.120344343254  -0.167347431173  -0.537398639091  0.0589585993864  -0.365930308955  0.306834175001  -0.221251354282  0.0387262632888  -0.183126544706  -0.031954566473  -0.429680223101  0.182501142  0.584548280414  1.36557103987  -0.533714244124  0.528652455025  -0.446869293705  -0.31614503926  0.570438502597  0.125674592825  -0.0838978593722  -0.364107438878  1.17917941639  -0.538130607543  -1.17831326362  -0.264753235485  -0.109833750212  1.64651890843  -0.0895072898569  0.0210293583971  0.0699712270997  -1.55859140036  0.734271263258  -0.426486893451  -0.173237930237  0.390746846693  0.344502966116  0.164377138852  0.668282519807  0.521927339186  -0.258731451282  -0.119717345878  0.149355912554  -0.205559987357  -0.017407105974  0.53104420489  0.678299228564  -0.480154639804  -0.331154942633  0.0348289541349  0.10560879981  0.198333242469  -0.748947159044  -0.244040858493  1.10426480295  0.149735072036  0.395359464289  0.257046952163  0.498732308139  -0.755912645147  0.401590689225  0.649928144909  -0.561142381474  0.322451289497  -0.316231278829  -3.26532239592  0.348339198312  -0.113176689364  0.540334656181  -0.35016111965  -0.293591063157  -0.282886569445  0.137500482497  0.156261549785  -0.183886827125  0.783319065977  0.27170624188  -0.402285415415  1.47195428254  0.395278109219  -0.312527433537  0.353478683338  0.198319105323  -1.4749371229  -0.761348337708  -0.681947944576  -0.0262378305474  -1.66258795225  -1.08756088334  -0.76558141052  0.566211901461  0.657746960518  0.213052871186  -0.421282598241  -0.195519180206  -0.04083864826  0.129863847595  -2.18993294731  -0.704441527588  -1.02814408668  0.537917781049  1.4924273636  1.03872658022  -1.47218067529  -0.500112222535  0.151279631323  0.548369154724  -0.0990474584984  -0.694873690699  0.296865888592  -0.49044872539  -0.578122978443  0.319667549534  -0.837388269518  0.288815744042  -0.564476299723  -0.784075109438  0.263569754635  -0.172180013906  0.410542234108  -0.382246727308  0.334254704744  -0.144156770224  -0.0503457749168  0.95029052707  0.0024291007329  -0.257466336927  -0.80222419119  0.105824692527  -0.67211155965  0.581062275682  -0.247143157269  -0.557388769177  -0.447406781438  -0.0883406056514  -0.00698385821781  0.551320512596  -0.827234316439  0.53466193021  -0.181043025252  -0.373434188332  -1.06315248137  0.113996631658  -0.553220532125  0.15650615115  -0.261866560914  -0.254088927202  -0.0371045435409  0.368305415417  -1.02033224847  0.0756903457259  -0.744496674555  -0.626871527268  0.756872069397  0.00263473384781  -0.222186275165  0.678366542291  0.672924504878  1.01295833351  0.62073192641  -1.38361645233  0.0421861545682  0.81299445223  -0.0787723235455  0.499615180054  0.172694850948  -0.0624630443467  0.442925964586  0.408812401572  0.069950593117  0.079400100599  0.65074830385  0.504237108413  -0.364511639541  1.00195544397  0.605740327882  0.0559157005703  -0.333364484338  -0.281097441751  0.705787830343  -0.343660525349  0.364435813272  -0.171803081444  -0.829526083079  -0.179308751831  -0.25121559961  0.357799473744  -0.989762938381  0.273377865064  -0.677034232745  0.226039161659  -0.149208611295  0.310174382634  -0.647990644739  -0.601430346578  0.122194011337  -0.156001803546  0.483614460896  -0.788648549147  -0.32027444573  0.639981259839  1.69048644126  0.789827309821  -1.00645114359  -0.813556094789  -0.631218555936  -0.557352652751  -0.489587677855  0.0834798551277  0.133319099216  0.666689530788  0.202340970615  0.563028941736  -0.392423342272  -0.817631580544  -0.735016933859  1.10629791256  0.200537113283  -0.682666433701  -0.899547589802  -0.0520101874094  -0.142139791716  1.00957833872  -1.37250451476  -0.0682485880176  0.231345941767  -0.278335377382  0.572276583732  0.0943491124316  -0.158950842399  -0.443153743005  -0.802135733983  0.105299917032  0.259762655026  -0.0609786201432  0.117292151683  0.195786607019  0.4381852116  -0.338071645235  0.468534692217  -0.116471857992  0.0455522085085  -0.346216148412  -0.680265764979  1.09046689006  -0.570030827544  0.398992396166  -0.535997947379  -0.208177686701  -0.597358619017  -0.330653377165  0.183749716189  -2.18295071628  -0.0251034330647  0.49182524682  0.560993849031  -0.913623537619  -1.17284768664  0.183366377201  1.04476607543  -0.509493749985  -0.00636422308594  -0.258383504178  -0.608824086612  0.237145810259  -0.677479476505  1.17796915732  0.470892076295  -0.0793704107632  -0.0275703791455  -0.818064707163  0.39525179931  -0.478049901486  0.127927595331  -0.143164620146  -0.480113878163  0.0115981216169  1.19909261216  -0.0308042601488  -0.99355635099  -0.173852437984  0.911094529626  -0.347332376102  0.437575659054  -0.151413825033  0.0137372088802  -0.229741520828  0.179485818174  0.0604366522399  -0.525555990129  -0.599021463281  -1.18781711762  0.0801996639115  0.464605535925  0.043992851049  0.0698877951944  -0.466328416913  -1.38389853499  0.440526854134  0.0701559972012  0.768810451712  -1.65480200584  1.83848558018  0.17448739359  0.296123187937  -0.373114159015  -1.62777962893  1.13747621266  0.361265972026  -1.35978273842  0.106975878143  0.344372052778  0.635428962273  0.155633885693  0.00715694793739  0.170554721922  0.257546315664  -0.430446802657  0.785873048867  -0.473011969372  1.70000758526  -0.148609503114  0.11347197603  0.0988744858808  0.417695608583  -0.0881675661633  -0.502338492334  -1.14535829472  0.159824258361  0.324741232965  -0.76759520143  0.249885227124  0.385237697446  0.00871352589679  -0.120555475999  -0.284875911373  0.188447265946  -0.104475272155  -0.581610749925  -0.0458371406152  0.824338640152  -0.514281479525  -0.29584194017  0.0343978389341  0.732417420877  0.728896294558  0.567037120944  0.237827910565  -0.186030891671  0.263081443094  0.502817715684  0.36459921715  1.18887609155  0.245934256281  -0.0770403267151  -0.927011463757  0.138354086668  0.698156453694  -0.459008531912  -0.888047837624  0.198602767156  -0.292276535108  -0.610500466898  0.616988377082  0.859696488022  -0.326850595103  0.700808249548  0.602592193798  1.58734934255  0.236157814768  0.389711362211  0.198372045569  0.30860272136  1.97404753045  0.0511440995576  -0.97952592685  -0.2372217593  1.02809442267  -0.0967827813271  0.469372203653  0.350854062465  -0.171182035312  0.652903576188  -1.20498810675  0.0572951214273  0.0702717992626  0.761767897979  0.612933716385  1.1846809768  -0.608670306262  -0.539322878072  0.469284149532  0.412264322639  0.570147638535  0.232877810819  -0.101773078173  -1.6429070731  -0.228030330587  -0.872867198937  -0.0815255106814  0.605511877298  0.955992172793  -0.180020860316  -0.511484427423  -0.980497708528  -0.441213849851  -0.11299151733  0.241820515677  -0.0944985040177  0.46829147513  -1.02195832439  1.88006381007  -0.206966713746  -0.246851264294  -0.423204227239  -0.221845033646  -0.0224575234105  1.71192675045  0.0142478259875  1.17146594682  0.0896459034918  -0.198238421074  0.396871093555  -0.12013280204  -0.0938338170207  0.834147140585  0.120511383682  0.261446339742  -0.654359526561  0.071397216628  0.0729490710823  -0.0427868315541  0.412637368972  1.62597966445  -0.135232907604  -0.262598027575  0.123666158542  -1.98998528057  -0.332185210369  -0.200907629066  0.294132993203  -1.46056569757  1.07292931034  -0.176581426564  -0.209103627227  0.410711152068  0.0461120278012  -0.262223651926  0.199168368492  -0.612622436257  -0.703054370013  0.557699009477  1.12027253212  0.841138951129  0.000240075890391  -0.223520423064  0.379552477893  0.217177507707  0.285885895095  1.24318667765  0.26105808944  1.27094182809  1.09976643351  0.221936860732  -0.528326614901  0.476714125045  -0.0796960146037  -0.153363994769  -0.534459257313  -0.287670820933  -0.579121546716  1.28221033803  -0.190261150316  -0.344022202998  0.250412257802  0.423513453266  -0.595861824849  -0.0851783336534  1.35778587666  0.140422813769  0.139187207279  -0.659386407496  0.213134162421  0.355780703889  0.370973314677  0.514954687773  0.0376428372022  -0.375673691057  0.693545998946  0.32057515618  -1.16820321584  -1.07649167989  -0.154112025464  -0.539675355151  -0.00631789910702  -0.722590102094  -0.632495925562  0.271470480644  0.549635912471  0.596195338954  0.903659175653  0.25592256828  -0.208171360721  -0.292502051135  -0.24247744729  -0.0278564246191  -0.451475852654  -0.46213888698  0.0456660691772  0.749676036496  -0.604727228307  -0.550686594835  -0.0135534139667  0.354469521966  -0.128474823896  0.667841916123  -0.153839825877  -0.0885245020705  -0.61970186129  0.632777647142  -0.0247936279493  -0.0818376103444  0.720183617086  0.999247248027  0.212637828891  -0.321635817147  -0.234844123239  0.922670505033  0.526250706652  -0.037804183646  -1.6042973665  0.203061875435  -0.243260194711  0.075302788959  -0.111222741887  0.222114139033  -0.622617226853  0.475538330689  0.303547919026  0.382613565899  -0.0546990158694  -0.178716500455  -0.614773991572  -0.235870776155  0.568349631178  -1.2249873583  0.15213648227  -1.07588953249  0.799886112581  -0.491250784124  -1.7104774878  -0.13723324049  0.82172119163  -0.341102958728  0.521540737295  0.211234622963  0.758379986928  0.113819115087  -0.136746517385  -0.107808639232  -0.458610778128  0.687716079362  0.387359360608  0.386217123136  -0.212129370322  -0.454562694983  -0.113344765979  -0.871640298993  0.0607763127441  0.252972233492  0.465090493414  0.510822419448  -0.0887700439481  -0.629947544657  -0.0412594980971  -0.19035354748  -0.415822142105  -0.291375180825  0.275556227501  -0.0887793739114  -0.23050955573  -0.965168109943  -0.186254721666  0.554655354712  -0.103783574414  -0.5441405442  0.422414706077  -1.34040953118  0.157541941273  0.829312016973  0.742681247902  -0.124934527263  -0.120200572005  -0.189959873703  -0.560648846758  0.139192724543  -0.170049454466  0.0556149252424  -0.74596087967  -0.656945599428  -0.0334631086017  0.318967811349  -0.544734025673  0.000871962617077  0.0476249892184  -0.661813690178  -0.325789340509  -0.228695515785  0.132455322016  -0.542978734503  -0.353310699007  0.837477470305  0.240707607608  -0.379097838655  -0.707472851868  0.772690648716  -0.235669658552  0.0276723827146  0.4210724015  -0.232730188627  0.148735231086  0.813268008821  -0.187951567845  -1.10946372251  1.31359435677  -0.248112053941  0.672097822423  -0.841610475703  -0.746430097262  0.125702624651  0.840856256619  0.36310792299  -0.561885770575  -0.0434124826859  0.010300214589  -0.953947247711  0.0520870929739  1.15528252363  0.474429948308  0.052265783621  -0.743122694493  0.599201580199  -0.144431355649  0.092169398931  0.469703535163  -0.114809173413  0.0308735036085  0.117888481353  0.0977571353056  1.08617851861  0.662708753903  0.00485899712834  -0.450751074801  0.106078713318  -1.08314409873  1.28001576001  -0.0232800636183  0.605700308839  0.232700987905  0.000388373249889  0.141995937165  -0.228215187171  0.510979736767  -0.412984078942  1.51077491979  -0.753716272574  -0.236900478875  0.0609552479059  0.229478323959  -0.275129660403  -0.406009091016  0.429103683294  0.991054455084  -0.722735193518  0.663721543559  -1.06540804873  -0.223316157081  -0.149927324347  -0.75393953232  -0.192315709713  0.0932798371398  0.0631731223239  0.357689995545  -0.496864337428  -0.374134974368  1.10739825683  -0.777693690753  -1.30087700198  0.242302790133  0.451250989111  0.375242037912  -0.132509102273  -0.418283013761  -0.355615181098  0.0209569216379  0.513913512195  -0.537877904111  -0.417207385539  0.201964534323  -0.397008637891  0.423518720443  -1.67437590111  -0.156150652409  0.127092697422  0.560359734718  0.228131664164  -0.302839018789  0.724242080404  -0.230093182471  0.589750611557  0.295732283329  0.0270510273571  0.173229161205  0.653178374972  -0.183716183375  0.492595786121  0.68645802675  0.0401828681375  0.371706952114  0.035245794354  -0.345487026976  -0.185710645298  0.579325096156  -0.389153042954  -0.955655796111  -0.431992328388  -0.211542710669  0.569958433715  -0.322341955654  -0.410371908728  0.128049679227  -0.212314525977  -0.442306354179  0.00347895426932  0.912871460261  0.776410471747  -0.811737167519  -0.249258915705  0.280432554174  0.42956325387  0.26726961937  0.569311860355  0.101556013421  0.210117633291  0.60135439334  0.660405369343  -0.928611107752  0.45268380693  0.104137234949  -0.555456142913  -0.185828592633  0.594456577539  0.503840468469  1.57249659005  -0.441982558386  0.687602074483  0.721876424562  0.470115613396  0.609091064241  -0.856891590768  0.223910982193  0.602596037986  -0.345278079959  -0.995488512699  0.0589848780833  0.162133114216  -0.811696390772  -0.99931871953  0.921757898754  0.917357982586  -0.222738263599  0.658697405104  -0.135176727763  0.159078090368  -0.0890505164634  -0.206747566701  0.538347553194  0.117653780989  0.169793255767  0.674805616763  0.986546139668  -0.165787260671  -0.171507389783  0.401324946144  -0.292257837489  -0.0585672134997  0.236907958055  -0.103026742833  -0.377147555157  0.558557645091  -0.290485748447  -0.181813907469 
